//Analysis Type - Regression 
#include <stdio.h>
#include <conio.h>
#include <math.h>
#include <stdlib.h>


double input_hidden_weights[114][6]=
{
 {1.11545242717649e-001, 1.14992625766817e-001, 1.92969585773365e-001, 2.57207701126354e-002, 1.26577294722717e-001, -1.43242007382766e-001 },
 {-1.65880593875946e+000, 1.42478351942324e-001, 2.34297371180293e-001, 2.35675459751996e-001, 7.64581817896848e-001, -5.81705728101968e-001 },
 {-1.96230499228139e-001, -7.16146963093632e-001, -8.76994566794973e-001, -7.28366585532401e-001, 1.40690119910282e-001, -2.02712767315716e-001 },
 {2.07265905607375e-001, -1.06572161988368e-002, 1.24925981401324e-001, 4.58231692580152e-003, -5.26565461642797e-002, -4.62872427678143e-002 },
 {-1.56553642997857e-001, -7.78112256933071e-002, -2.32150678228444e-001, -5.57377217600772e-002, -2.53484874467232e-002, 4.43291439827715e-002 },
 {1.91413601544145e+000, -4.02588424976316e-001, -2.58525181936616e-001, -4.45351574800999e-001, -4.99180503999524e-001, 6.56495409698484e-001 },
 {-2.49849433871859e+000, 5.56768101796675e-001, -3.55436931070232e-002, 6.72294102464497e-001, 8.19089179492347e-001, -7.73768111023887e-001 },
 {5.45208001894394e-002, 1.54280202204659e-001, 6.47764488030837e-002, 1.17824654237766e-001, -7.87022281276198e-003, 1.14932959096587e-001 },
 {2.42866396021640e-001, 1.08493354299497e-001, 3.07047735815926e-001, 8.99801794986264e-002, -5.17211336164649e-002, 8.96838767512777e-002 },
 {-3.49008372738739e-002, 7.57001733268788e-002, -4.28288453491360e-002, 5.11826852426788e-002, -6.49849360768128e-002, 2.05292396901418e-003 },
 {6.19574351484546e-002, -1.82963403646128e-002, -2.12373229838744e-001, -2.60600162977216e-002, -3.00020771078659e-001, 8.26341117812113e-002 },
 {1.04438130857583e+000, 1.91251360771701e-001, 1.05793612711482e+000, 6.76494331133596e-002, 3.68596861040564e-001, 1.56422125540488e-001 },
 {1.16034219599874e+000, -2.28652344716216e-001, 2.22783030442855e-002, -3.48902105719996e-001, -2.71509049120489e-001, -4.04216378811615e-002 },
 {-3.72764616197111e-001, -4.72833538762452e-002, -2.87852979430469e-001, 7.96196853841567e-003, -4.40891995481116e-002, 6.05683355213347e-002 },
 {3.93916213256123e-001, 1.54538287531612e-001, 4.83577949781417e-001, 1.23461418433599e-001, -6.78236522860233e-002, 3.80640699299727e-002 },
 {9.08363877741352e-001, -4.27561063928303e-001, -7.21646730747344e-001, -4.18524982896336e-001, -8.80142528600751e-001, 9.36451552301672e-001 },
 {-2.23138677809016e-001, -8.96574797108111e-001, -1.08420690689905e+000, -9.15261713961917e-001, -1.35642481182300e+000, 1.59246544193291e-001 },
 {-6.98921858437733e-002, -1.83410988137323e-002, -2.11019650543239e-001, -5.46473110903178e-002, -2.75989313308003e-001, 1.74285353516368e-001 },
 {-4.36210187364343e-001, -2.34378248130599e-001, -4.11317938111602e-001, -1.29406643288911e-001, 1.92437103071321e-001, 4.63118338451119e-003 },
 {-3.78613539700335e-002, -4.39060863140541e-002, -6.56919261264610e-002, -6.31800290315456e-002, -2.17719809758633e-002, -2.57890278962554e-002 },
 {3.95339570460676e-001, 1.51925496469282e-001, 4.07719510438004e-001, 1.07104381307724e-001, -1.18461528059873e-001, 9.54542987486334e-003 },
 {6.95880682466078e-001, 1.53446883977625e+000, 6.29325438380067e+000, 1.54641259062907e+000, -2.88299885636214e-001, -2.65157214716249e+000 },
 {-1.10630018942302e+000, 1.83425338231231e-001, -3.88887568531237e-001, 3.01577016628033e-001, 1.57063971578338e-001, 4.12961379493585e-001 },
 {1.54583264540277e-001, 1.17230937460395e-001, 1.28497559813254e-001, 6.28092210005757e-002, -5.30192343836735e-002, 5.98623223398304e-002 },
 {3.41696280337899e-002, -2.94183983418980e-003, -5.55212434210881e-002, 4.06328740939714e-002, -3.03332719753987e-002, 1.99991913939567e-002 },
 {-5.74431665936105e-001, -3.54023102162347e-003, -3.04313415673119e-001, 2.22945775607620e-002, 3.26081614667994e-001, 3.25664930142990e-002 },
 {2.76443741599985e-001, 1.28667790799708e-001, 3.34925559153379e-001, 1.22857890824162e-001, -2.32519114999467e-002, 9.83801791233047e-002 },
 {-1.02384358096925e-002, 6.17782450893865e-002, -8.75857533377581e-002, 1.94889978496911e-002, -1.41736910825098e-001, 1.04971144706845e-001 },
 {4.89198715019017e-002, -3.11556245470969e-002, -5.66956504051509e-002, 7.08054846219833e-003, 4.61066621861701e-002, 2.81030351712393e-002 },
 {3.35695840103423e-001, -9.16231408333358e-002, -3.03077909769696e-001, -5.58738734850882e-002, -1.05884471063461e+000, 6.38787917136972e-001 },
 {-2.52139550202672e-001, -1.15998105312437e-003, -5.89152568323521e-002, 5.84508955008918e-002, 1.32356875539250e-001, 4.72262236346224e-002 },
 {-1.26715188813279e-001, -4.56797359199037e-002, -2.45901953108216e-002, -3.07254199495427e-002, 1.05219667495856e-001, -6.67206054196749e-002 },
 {-2.16961947291383e-001, 8.87103435911525e-002, -2.81193600045406e-001, 1.02179652116499e-001, -3.60176986046254e-001, 1.66540463855144e-001 },
 {-3.21617186118701e-001, 3.20862395499085e-001, -1.06355061547333e-001, 3.30353544986281e-001, -1.91950175962764e-001, 3.21102468220305e-001 },
 {3.13360893450760e-001, -2.84500596496659e-001, 7.49049443442925e-002, -2.94757079734456e-001, 2.21688879061602e-001, -1.95492280948146e-001 },
 {-3.16234135466665e-001, -1.44655766289491e-001, -3.39105738092904e-001, -1.57450176184113e-001, 1.08748378804035e-001, -3.51344002488634e-002 },
 {-2.14016407208286e-002, 2.45500487652872e-002, 1.74119246465109e-001, 4.07649905378778e-002, 1.12159970319224e-001, -7.38540628195591e-002 },
 {1.15801763858221e-001, -1.09944710326911e-002, -3.17719707964209e-002, 1.38008578459722e-004, -1.25848277083036e-001, 6.27009105895819e-002 },
 {1.50097351527999e-001, -6.15945184850765e-002, 1.50122227177291e-001, -4.14707664682752e-003, 2.23398129161363e-001, -1.31492978990858e-001 },
 {1.29597716323381e-001, 1.88890866101301e-002, 2.43349227104341e-001, 2.53092387029413e-002, 2.20667965332996e-001, -1.44894727058057e-001 },
 {3.49171141742653e-002, 8.58296749962124e-002, 2.94909376957337e-001, 3.53340012978585e-002, 4.38314317345792e-001, -8.61371813324462e-001 },
 {-2.82399224289315e-001, -1.20328935150888e-001, -3.47079967181208e-001, -1.29569968983346e-001, -6.41061478403910e-001, -8.94905405015987e-002 },
 {1.47350530592447e-001, 4.19682260751292e-002, 1.24905284551622e-001, 8.04803191153101e-002, 2.22220170981963e-003, 3.83263818931444e-002 },
 {-2.04210028917870e-002, -1.54736701356342e-002, -1.25289085149809e-001, 4.78636209179157e-003, -1.43947401063084e-001, 6.10278873665824e-002 },
 {2.02333852361032e-001, 1.44296686204307e-001, 2.71495181231625e-001, 1.08695491097663e-001, -1.42978223035630e-002, 5.21931762178501e-002 },
 {-1.10329107652207e+000, -2.85748079116900e-001, -8.47309005135341e-001, -2.10893855675614e-001, -2.35528494369298e-001, -1.19332081633531e-001 },
 {-4.27355619172610e-001, -2.95428482321040e-002, -1.45393230812371e-001, 4.15150485506075e-002, -1.04880185996175e-001, 4.86590976239431e-002 },
 {4.34977017501243e-001, 1.05662057148000e-001, 3.04719289099080e-001, 1.11061168410376e-001, -2.92481277990944e-001, 1.58217382219821e-001 },
 {-1.34017069360835e-001, 1.85332621676753e-002, -1.97704717489626e-001, 6.17940679517164e-002, -1.93896191335210e-001, 1.32707816488591e-001 },
 {-1.14174060688592e+000, -7.93767142444678e-002, -4.82140129937119e-001, 2.86477477844925e-002, 3.22893285280372e-001, -3.40279193671272e-001 },
 {4.97137205690111e-001, 1.68334982392078e-001, 4.34767577512814e-001, 1.35120240531537e-001, -2.66039845969171e-001, 1.10287468136208e-001 },
 {1.72792410344160e-001, -1.62410534360698e-001, 3.71657750796854e-001, -1.65772604680815e-001, -7.18643762271602e-002, -6.98198277776118e-001 },
 {-2.25082610049953e-002, -4.17808786648350e-002, -4.26461940357886e-002, -1.43857193257272e-002, -4.19904938106119e-002, 9.51572714933890e-002 },
 {2.14146603524014e-001, 1.11518874078113e-001, 1.95905191220224e-001, 1.29386423094538e-002, -1.60755530057326e-001, 7.54650038519558e-003 },
 {-6.01983898560238e+000, 1.54030371219190e+000, 3.01640995714321e+000, 1.43197731593316e+000, 2.54248535517161e+000, -2.18026886470301e+000 },
 {1.42960359370173e-001, 8.71032027924772e-002, 2.59153039013840e-001, 8.04276673854353e-002, 1.66343216438533e-001, -1.15623253852833e-001 },
 {1.25429199565488e-001, 6.43759461804357e-002, 2.74668666018170e-002, 5.44102886463467e-002, -2.73017214925286e-001, 1.36545880360411e-002 },
 {1.00829242324812e-001, 7.66676717153255e-002, 1.45703416659783e-001, 1.21621781625367e-001, -9.24565809998501e-002, 1.17399778097623e-001 },
 {-2.48906167481179e-001, -1.72453217358324e-001, -4.11409122010250e-001, -1.21295556327458e-001, -6.41379865542165e-002, 1.49121931736644e-001 },
 {2.19437110200728e-001, -4.52109543955213e-001, -1.17956828774467e-001, -4.86002493505205e-001, -1.11249627666410e-001, -2.03636257409062e-001 },
 {9.54867159700471e-002, 7.78824326356408e-002, 3.20700162595019e-001, 7.87006193601978e-002, 1.44748784892372e-001, -6.28706146048200e-002 },
 {9.91690270601708e-002, -1.95243306458630e-002, -2.73582836481194e-001, 1.17342144402764e-002, -8.10533629014741e-001, 4.73130825231513e-001 },
 {-6.41369063274139e-001, -1.51723877885539e-002, -3.35115511583926e-001, 6.70410902826436e-002, 1.68068097735588e-001, 1.79200421281582e-001 },
 {6.47547403829950e-002, -3.26411374350375e-002, 6.10014543188493e-002, -2.18000721909242e-002, 1.45286423105088e-001, -1.15223952775512e-001 },
 {7.58858660897754e-001, 2.35239234513361e-001, 5.78478103998793e-001, 1.52287496146655e-001, -2.53769204590048e-001, 1.50546930023211e-001 },
 {3.65053886274559e+000, -9.32868351221812e-001, -5.81301138195983e-001, -9.94608501581083e-001, -1.66299689027193e+000, 1.68762306384190e+000 },
 {-2.06969484857601e-001, 1.32449489023741e-001, -3.16883215029948e-002, 1.90728575377187e-001, 1.69535724442115e-002, 1.16797295904965e-001 },
 {1.40109301874390e-001, 1.47457653330128e-001, 1.34220092998726e-001, 1.04440104233945e-001, -9.01143735852494e-002, 8.82302735335065e-002 },
 {-1.87789140921590e-001, -1.01619903513142e-001, -2.20333527544723e-001, -4.85637350584370e-002, -3.16658940719246e-002, 4.38314072907677e-003 },
 {8.36659123111530e-002, 1.69558875918427e-002, 1.71627133100772e-001, 1.29497390123630e-002, 1.34357084388650e-001, -4.28584100995327e-002 },
 {-3.23001260776658e-001, -1.43494872588119e-001, -3.99223626258086e-001, -9.75297115718095e-002, 5.43446732195469e-002, -1.30220165085160e-002 },
 {4.85949904901282e-001, 2.16336737400753e-001, 4.60321833288255e-001, 1.41077947641649e-001, 7.67748434409679e-002, 1.06351309551972e-002 },
 {2.31698682112286e-002, -4.23190896703348e-002, -2.74846259518650e-001, -1.17351196328940e-002, -6.18703670707389e-001, 3.80984805744709e-001 },
 {-1.80487869886882e+000, 1.12452388521873e+000, 1.37770848225984e+000, 1.08308539057340e+000, 6.39314909473917e-001, -1.71931675527892e+000 },
 {-1.47357562324006e-001, -7.76023553443161e-002, -2.86581168363309e-001, -6.72840939765412e-002, -6.65962312216502e-002, 1.08138955039703e-001 },
 {-4.05172935457496e-001, -2.07381811241399e-001, -4.97817904940792e-001, -1.36369791206388e-001, 4.81461182418321e-002, 2.13208850654253e-002 },
 {1.93993394462556e-001, 5.97520753616622e-002, 2.14107073622901e-001, 1.70644187321933e-002, 1.44820921000556e-001, -5.37967914066928e-002 },
 {8.47048607790801e-002, -9.83598407594618e-003, -1.23809605054694e-001, -2.06078945739832e-002, -3.68889707262676e-001, -1.36251117238754e-002 },
 {3.91787258904730e-001, 4.50331583937762e-002, 1.68484054397075e-001, 5.63960237275304e-002, 8.21518031057100e-002, 2.75040330668400e-002 },
 {-2.18990404783138e-003, 5.91042059257282e-002, -2.35461760095041e-001, 6.85868773737826e-002, -6.78753262011272e-001, 2.80829496806249e-001 },
 {2.05143652142005e-002, 6.71316761549943e-002, 6.69601312697618e-002, 8.41146468593909e-002, 3.79903542413468e-004, 5.26823433331697e-002 },
 {4.89347020875890e-001, 1.58857400159142e-001, 4.63219402324048e-001, 1.16886667031413e-001, -2.50595665561302e-001, -3.31526489065758e-002 },
 {-4.77074206672429e-002, 4.49380659462367e-003, 4.60593841819905e-002, 3.05366234648131e-002, 7.59211482375762e-003, 3.51973479086048e-002 },
 {-1.88048232038039e-001, -3.35743182084927e-002, -3.06806184592188e-001, -3.59498972716523e-002, -1.89441186692708e-001, 8.10471488604683e-002 },
 {-9.82113777581169e-002, -7.45971782982807e-002, -2.06021964293534e-001, -5.13691287766601e-002, 5.56096550925495e-002, 4.19329324112506e-002 },
 {6.76263732539194e-001, 1.05992051554279e-001, 5.02588706790362e-001, 3.68158233370724e-002, -3.53150692023140e-001, -3.97382077789382e-002 },
 {-4.94161321613312e-001, -1.40795408804881e-001, -4.74670106429165e-001, -4.30513857298583e-002, 2.20206172407462e-001, 6.34177444083297e-002 },
 {9.70380930198467e-003, 7.61081543709368e-002, 3.97002051319188e-001, 2.57032679364143e-002, 6.09583871320366e-001, -3.40623905494648e-001 },
 {-5.16513520928004e-002, -6.29926361745727e-002, -2.83840891468719e-002, -2.99856719993114e-002, 1.98757631006181e-001, -5.27710828653686e-002 },
 {2.41116015324351e-001, -2.62776269136495e-001, -1.73344463389161e-001, -2.43837118755504e-001, -9.96844124836173e-001, 3.24819974689802e-001 },
 {9.15791568178711e-002, 1.22523793623339e-001, 1.30642107024269e-001, 1.01816882576371e-001, -1.73803094751923e-002, 6.24478410172736e-002 },
 {1.23073309297531e-001, 1.34845868035128e-001, 7.23950232316703e-002, 1.16211597480763e-001, -8.03876502963457e-002, 4.30903938512807e-002 },
 {1.79849013733572e-001, 1.56280936556028e-001, 3.62828684547275e-001, 6.12334087215735e-002, 3.09381014618437e-001, -2.85504121735894e-001 },
 {-5.88313081683583e-001, -2.25585591890387e-001, -5.85667018899433e-001, -1.99511413742691e-001, 1.05565260111239e-001, -4.37565487054115e-002 },
 {-3.86477232120166e-002, -4.43512532347091e-002, -6.26011163649400e-002, -3.35991037419876e-002, -7.67004254487289e-004, -1.31500577753200e-002 },
 {-1.07419147463738e+000, -1.96301155169939e-001, -9.31368824133052e-001, -1.39870391893242e-001, -2.01681004171778e-001, -5.67474447477319e-002 },
 {-1.70227444780435e+000, 2.95628350005815e-001, 3.58587421125613e-002, 3.94618460170107e-001, 4.09021509623036e-001, -6.09834661112797e-001 },
 {-2.19875124247162e-002, -1.03304584171284e-001, 4.61016318784020e-003, -5.65517636465490e-002, 9.04408141924198e-002, -1.20607671657831e-001 },
 {-3.09388272032846e-002, -6.21304015670869e-002, -2.51157832168652e-001, -6.75697497565679e-002, -4.09334539714809e-001, 2.29206669113959e-001 },
 {6.63541172950467e-002, -6.01036060567055e-002, -2.39307952429561e-001, -1.78689068174807e-003, -6.81404246919194e-001, 3.89626069454431e-001 },
 {1.05078844032328e-001, -2.84858911358199e-002, 7.77242957315806e-002, -9.74276172595763e-002, 7.84142935097472e-002, -8.15859638464314e-002 },
 {-8.15777315207970e-002, -4.39671747950125e-002, -5.58885000402152e-002, -4.60122456788895e-002, -5.02339684357628e-002, 2.47532528373045e-002 },
 {-1.09132826505488e-001, 1.16593399769154e-002, -1.85129728544373e-001, 2.42577491419910e-002, -3.49940555545807e-001, 1.00234736594261e-001 },
 {5.85915166001906e-002, 3.16326609713220e-002, 6.23742073724554e-002, 7.87119135581316e-002, -4.21818856954683e-002, 5.32507640361452e-002 },
 {-1.36078349480104e+000, 5.48258997390539e-001, 8.12495452941690e-001, 4.97136514229013e-001, 1.33950456291472e+000, -1.26659982710703e+000 },
 {-3.76099078913018e-002, 1.93894471326877e-002, -1.73477905377228e-001, -1.26345381815391e-002, -1.07262282985517e-001, 8.62877556965028e-002 },
 {-1.42912533707703e-001, -1.46888243968985e-001, -1.38297969534018e-001, -1.29217147573913e-001, 5.20718809646037e-002, -9.23591549650137e-002 },
 {-4.82886291955952e-001, -2.08900409849691e-001, -6.05238762551599e-001, -1.32351445527429e-001, 1.26703046619226e-001, 1.45120980625377e-001 },
 {2.25060803013624e-001, 5.72374297924846e-002, 2.41745269905209e-001, 2.74603864467297e-003, -1.51103438727954e-002, -1.78845988504052e-001 },
 {6.13776122102668e-001, 1.92697728569823e-001, 5.14139255057882e-001, 9.62886553259195e-002, -1.18599111518523e-001, -3.02236082785288e-002 },
 {-1.02344610444095e-001, -6.85101473914259e-002, -2.15035738642243e-001, -1.22641730221101e-002, -1.63885266940121e-001, 8.07506994034989e-002 },
 {8.62214304190912e-001, -1.52541271316490e-001, 3.98467801490541e-001, -1.91166245081333e-001, 6.60458392334728e-001, -4.56574386771437e-002 },
 {-8.14865933998472e-002, -3.53796059549741e-002, -1.84211001884142e-001, -3.98964500744821e-002, -1.69078059995123e-001, 1.10596024917291e-001 },
 {-4.09232031035589e-001, -1.33093058103185e-001, -5.18758541734257e-001, -1.24295770721173e-001, 1.32295440252627e-001, 6.17297462852502e-002 } 
};

double hidden_bias[114]={ 1.90612410152910e-001, -1.00867825230060e+000, -1.14523945120161e+000, -4.45280406499869e-001, 4.85696395438253e-002, 8.79651444765485e-001, -1.01317015991250e+000, -1.32309386391525e-001, -8.23333473199176e-002, -1.52749391946533e-002, 1.06286093029110e-001, -4.81806057643696e-001, 1.46187700907434e-001, 4.94268601252610e-001, -1.00397283147539e-001, 1.33153478185518e-001, -1.48093202192480e+000, -1.34444289141621e-001, 2.26938323015128e-001, 1.16103076861013e-001, -2.28859070726955e-001, 2.18830512224360e-001, 4.65377076794695e-002, -2.30956647976232e-002, 7.37564610904703e-002, 1.50981037962543e-001, -2.69145944616207e-002, -2.93782981238420e-001, 1.01012890324790e-001, -2.85315941285980e-001, 2.96787112953969e-001, 1.04760595313534e-001, -4.89129135620152e-002, 8.74726793743001e-001, -7.78893220317947e-001, 1.48511225528466e-001, 6.18005788532436e-003, -8.39154604750231e-002, 1.38240305170525e-001, 1.33473149909391e-001, -4.37473792626739e-002, 1.61383554258371e-001, 3.33258405727885e-002, -1.35783103563343e-001, -1.02862369697408e-001, 3.34586514710201e-001, 3.53013701011802e-001, 4.34062262405548e-002, -3.93765018575266e-001, -2.07153188644051e-001, -3.53433161244501e-003, -1.80864951737881e+000, -1.33563906902508e-001, -1.18937175239141e-001, -8.33655985010213e-001, 7.14507983934325e-002, -1.38090870222268e-001, -1.53571962886792e-001, 1.36980622602120e-001, -7.62433044062848e-001, -5.69438143459382e-002, -3.89288472254619e-001, 3.19549876848084e-001, 1.93339022518051e-001, 1.10373350484111e-001, 1.82145995439640e+000, 5.47210575151158e-001, -1.31887829940340e-001, -2.17163379221864e-002, 7.19265545771542e-002, 1.48952873089433e-001, -2.95142087823520e-001, -1.95250397296558e-001, -5.32499106529007e-001, 6.75829229859517e-002, 6.57471541314794e-002, 9.73349341727920e-002, -7.20590513994955e-002, -6.76350849043736e-002, -3.34424893134059e-001, -3.37895487754243e-002, -2.55825607321786e-002, -8.64239307287083e-002, -6.01861590399339e-002, 8.70844711649488e-002, 2.50328349320253e-002, 5.80763823452778e-002, 2.81888011715362e-001, 1.37459835223306e-001, 9.81899883618927e-002, -9.02994686347484e-002, -1.33918089998285e-003, -1.43160287377515e-002, 1.40473371618487e-001, 5.23968799574164e-002, 6.11872850776057e-001, -6.85490195714618e-001, 2.19613175848918e-001, -8.05802687054717e-002, -3.06054883035953e-001, 7.69712176766644e-002, -9.76226019619984e-002, -3.79572840256993e-001, -1.69620920193240e-001, -2.68338469858551e-001, -2.41461440480798e-001, 1.12996360855791e-001, 2.77713121867805e-001, -3.54691021148252e-002, -1.07541626635005e-001, -1.42078883204780e-001, -6.45996398243360e-001, -1.66682695648639e-001, 1.86731546596336e-001 };

double hidden_output_wts[1][114]=
{
 {2.58780243404373e-001, -9.97464949420119e-001, 8.84869121691536e-001, 1.74087332767936e-001, -1.39853933774262e-001, 1.50746560073194e+000, -1.46449790858177e+000, -4.99782308397285e-003, 1.61216144454717e-001, -1.33464088792058e-001, 6.53402979044359e-002, 7.30787922961279e-001, 5.43859204490677e-001, -2.54659970525038e-001, 4.13119963791078e-001, -5.24845633113639e-001, 1.02390627394390e+000, 1.56576045938168e-002, -5.01276958382420e-001, -1.99550190602641e-001, 3.81480945212876e-001, -3.80772586319274e+000, -8.12045069747100e-001, 2.55694254043676e-002, 3.37428682893073e-003, -9.07925780752656e-001, 2.27715566146201e-001, 1.51889035683620e-002, 1.40607591560097e-002, 9.79339637052792e-002, -8.76539217144088e-002, 1.52205936179177e-002, 1.35789636677282e-001, -2.33684043589982e-001, 2.03731717710191e-001, -3.35264598987154e-001, 4.95934781986178e-002, 2.18732009112497e-002, 7.35031545507958e-002, 1.89947703700473e-001, 5.24628836205714e-001, 3.46667988347883e-001, 7.82979908485640e-002, -1.42895845445591e-001, 2.26659190398365e-001, -7.15619793716629e-001, -1.23549986854271e-001, 4.77220881989844e-001, 5.40835666987331e-002, -8.79447402103345e-001, 5.77355542819738e-001, 2.79110359634323e-002, 5.41713890726363e-003, 1.02442296297347e-001, 3.34790991700415e+000, 2.87484176023262e-001, 6.38802150385592e-002, 2.18123420340671e-002, -5.05332539253062e-001, 2.15556049192499e-001, 2.38065538587616e-001, 1.58515424418884e-001, -9.33516763885204e-001, 7.68313432967739e-002, 4.17714328823553e-001, 2.59747574358505e+000, -1.65358804139870e-001, 9.31244011181068e-002, -6.87983487680641e-002, 1.97968665084521e-001, -4.64559711863711e-001, 4.95071332437124e-001, 1.95909097048170e-002, 1.29724623809636e+000, -1.98677535942291e-001, -5.07914993252220e-001, 1.46652617048492e-001, -9.62147568138082e-002, 5.80064676462571e-001, 2.57521027588991e-001, 9.49681335586117e-003, 6.20286184893392e-001, -2.27012623340310e-002, -3.21853136910996e-001, -1.19349994874843e-001, 8.60185262354478e-001, -7.30624575234771e-001, -2.48199147941540e-001, 6.49621444964529e-002, 1.90301155322923e-002, 1.27430313967402e-001, -6.09697384928490e-003, 3.55200647639905e-001, -5.47832728805760e-001, -5.29722095325656e-002, -8.36591517390488e-001, -1.41770659874013e+000, 4.15445337174576e-002, 2.18785564504712e-001, 1.50319729038440e-001, 1.58874149809480e-001, -6.68745952311573e-002, 6.27454871474086e-002, 1.05424240016167e-001, 5.75869303673251e-001, -1.31261334965696e-001, -1.04844501423185e-001, -8.71415435397031e-001, 4.75936135271596e-001, 4.81125414821217e-001, -2.32387183965212e-001, 3.80434580655198e-001, -1.17512678470018e-001, -5.79406481367979e-001 }
};

double output_bias[1]={ 6.59270450734086e-001 };

double max_input[6]={ 6.43300000000000e-002, 5.64700000000000e-002, 7.94000000000000e-002, 1.69420000000000e-001, 3.30470000000000e+001, 3.14820000000000e-001 };

double min_input[6]={ 2.04000000000000e-003, 4.68000000000000e-003, 5.70000000000000e-003, 1.40300000000000e-002, 8.44100000000000e+000, 6.50000000000000e-004 };

double max_target[1]={ 1.00000000000000e+000 };

double min_target[1]={ 0.00000000000000e+000 };

double input[6];
double hidden[114];
double output[1];

void ScaleInputs(double* input, double minimum, double maximum, int size)
{
 double delta;
 long i;
 for(i=0; i<size; i++)
 {
	delta = (maximum-minimum)/(max_input[i]-min_input[i]);
	input[i] = minimum - delta*min_input[i]+ delta*input[i];
 }
}

void UnscaleTargets(double* output, double minimum, double maximum, int size)
{
  double delta;
  long i;
  for(i=0; i<size; i++)
  {
    delta = (maximum-minimum)/(max_target[i]-min_target[i]);
    output[i] = (output[i] - minimum + delta*min_target[i])/delta;
   }
}

void ComputeFeedForwardSignals(double* MAT_INOUT,double* V_IN,double* V_OUT, double* V_BIAS,int size1,int size2,int layer)
{
  int row,col;
  for(row=0;row < size2; row++) 
    {
      V_OUT[row]=0.0;
      for(col=0;col<size1;col++)V_OUT[row]+=(*(MAT_INOUT+(row*size1)+col)*V_IN[col]);
      V_OUT[row]+=V_BIAS[row];
      if(layer==0) V_OUT[row] = tanh(V_OUT[row]);
      if(layer==1) V_OUT[row] = tanh(V_OUT[row]);
   }
}

void RunNeuralNet_Regression () 
{
  ComputeFeedForwardSignals((double*)input_hidden_weights,input,hidden,hidden_bias,6, 114,0);
  ComputeFeedForwardSignals((double*)hidden_output_wts,hidden,output,output_bias,114, 1,1);
}

int main()
{
  int i=0;
  int keyin=1;
  while(1)
  {
	printf("\nEnter values for Continuous inputs\n");
	printf("Cont. Input-0(Jitter:DDP): ");
	scanf("%lg",&input[0]);
	printf("Cont. Input-1(Shimmer:APQ3): ");
	scanf("%lg",&input[1]);
	printf("Cont. Input-2(Shimmer:APQ5): ");
	scanf("%lg",&input[2]);
	printf("Cont. Input-3(Shimmer:DDA): ");
	scanf("%lg",&input[3]);
	printf("Cont. Input-4(HNR): ");
	scanf("%lg",&input[4]);
	printf("Cont. Input-5(NHR): ");
	scanf("%lg",&input[5]);
    ScaleInputs(input,0,1,6);
	RunNeuralNet_Regression();
	UnscaleTargets(output,0,1,1);
	printf("\nPredicted Output of status = %.14e",output[0]);
	printf("\n\nPress any key to make another prediction or enter 0 to quit the program.\n");
	keyin=getch();
	if(keyin==48)break;
  }
	return 0;
}

